digraph Tree {
node [shape=box, fontname="helvetica"] ;
edge [fontname="helvetica"] ;
0 [label="X[2] <= 2.45\ngini = 0.667\nsamples = 112\nvalue = [37, 37, 38]"] ;
1 [label="gini = 0.0\nsamples = 37\nvalue = [37, 0, 0]"] ;
0 -> 1 [labeldistance=2.5, labelangle=45, headlabel="True"] ;
2 [label="X[3] <= 1.65\ngini = 0.5\nsamples = 75\nvalue = [0, 37, 38]"] ;
0 -> 2 [labeldistance=2.5, labelangle=-45, headlabel="False"] ;
3 [label="gini = 0.139\nsamples = 40\nvalue = [0, 37, 3]"] ;
2 -> 3 ;
4 [label="gini = 0.0\nsamples = 35\nvalue = [0, 0, 35]"] ;
2 -> 4 ;
}